{
    "algorithm": {
        "avg_evolution": [
            [
                0,
                -0.09939583390951157
            ],
            [
                10,
                -0.05327674746513367
            ],
            [
                20,
                -0.05516539141535759
            ],
            [
                30,
                -0.03281307965517044
            ],
            [
                40,
                -0.02794204279780388
            ],
            [
                50,
                -0.028003374114632607
            ],
            [
                60,
                -0.028003374114632607
            ],
            [
                70,
                -0.028003374114632607
            ],
            [
                80,
                -0.028003374114632607
            ],
            [
                90,
                -0.028003374114632607
            ],
            [
                100,
                -0.028002183884382248
            ],
            [
                110,
                -0.028003374114632607
            ],
            [
                120,
                -0.028003374114632607
            ],
            [
                130,
                -0.028003374114632607
            ],
            [
                140,
                -0.028003374114632607
            ],
            [
                150,
                -0.028003374114632607
            ],
            [
                160,
                -0.028003374114632607
            ],
            [
                170,
                -0.028003374114632607
            ],
            [
                180,
                -0.028003374114632607
            ],
            [
                190,
                -0.028003374114632607
            ],
            [
                200,
                -0.028003374114632607
            ],
            [
                210,
                -0.028003374114632607
            ],
            [
                220,
                -0.028003374114632607
            ],
            [
                230,
                -0.028003374114632607
            ],
            [
                240,
                -0.028003374114632607
            ],
            [
                250,
                -0.028003374114632607
            ],
            [
                260,
                -0.028003374114632607
            ],
            [
                270,
                -0.030422072857618332
            ],
            [
                280,
                -0.0278480164706707
            ],
            [
                290,
                -0.027849722653627396
            ],
            [
                300,
                -0.03030707873404026
            ],
            [
                310,
                -0.0357612781226635
            ],
            [
                320,
                -0.027753526344895363
            ],
            [
                330,
                -0.027849722653627396
            ],
            [
                340,
                -0.027849722653627396
            ],
            [
                350,
                -0.027849722653627396
            ],
            [
                360,
                -0.027849722653627396
            ],
            [
                370,
                -0.027849722653627396
            ],
            [
                380,
                -0.0304630808532238
            ],
            [
                390,
                -0.027849722653627396
            ],
            [
                400,
                -0.028085818514227867
            ],
            [
                410,
                -0.02776283025741577
            ],
            [
                420,
                -0.027849722653627396
            ],
            [
                430,
                -0.005128960590809584
            ],
            [
                440,
                -0.002551306039094925
            ],
            [
                450,
                -0.0025442305486649275
            ],
            [
                460,
                -0.0025512559805065393
            ],
            [
                470,
                -0.0024908643681555986
            ],
            [
                480,
                -0.004914550576359034
            ],
            [
                490,
                -0.0024908643681555986
            ],
            [
                500,
                -0.0024466158356517553
            ],
            [
                510,
                -0.0023164956364780664
            ],
            [
                520,
                -0.002297906903550029
            ],
            [
                530,
                -0.002297906903550029
            ],
            [
                540,
                -0.002297906903550029
            ],
            [
                550,
                -0.002297906903550029
            ],
            [
                560,
                -0.002297906903550029
            ],
            [
                570,
                -0.002297906903550029
            ],
            [
                580,
                -0.002297906903550029
            ],
            [
                590,
                -0.0023189173080027103
            ],
            [
                600,
                -0.0017690956592559814
            ],
            [
                610,
                -0.0017690956592559814
            ],
            [
                620,
                -0.0017690956592559814
            ],
            [
                630,
                -0.012524180114269257
            ],
            [
                640,
                -0.0017690956592559814
            ],
            [
                650,
                -0.0017413932364434004
            ],
            [
                660,
                -0.0014984775334596634
            ],
            [
                670,
                -0.001125854323618114
            ],
            [
                680,
                -0.001125854323618114
            ],
            [
                690,
                -0.001125854323618114
            ],
            [
                700,
                -0.001125854323618114
            ],
            [
                710,
                -0.001125854323618114
            ],
            [
                720,
                -0.001125854323618114
            ],
            [
                730,
                -0.0012205388629809022
            ],
            [
                740,
                -0.0012477453565225005
            ],
            [
                750,
                -0.00133416592143476
            ],
            [
                760,
                -0.0015590377151966095
            ],
            [
                770,
                -0.0015590377151966095
            ],
            [
                780,
                -0.0015590377151966095
            ],
            [
                790,
                -0.0015590377151966095
            ],
            [
                800,
                -0.009290467947721481
            ],
            [
                810,
                -0.0015590377151966095
            ],
            [
                820,
                -0.0015590377151966095
            ],
            [
                830,
                -0.0015590377151966095
            ],
            [
                840,
                -0.0015590377151966095
            ],
            [
                850,
                -0.0015590377151966095
            ],
            [
                860,
                -0.0015590377151966095
            ],
            [
                870,
                -0.0015590377151966095
            ],
            [
                880,
                -0.0015590377151966095
            ],
            [
                890,
                -0.0015590377151966095
            ],
            [
                900,
                -0.0015515381237491965
            ],
            [
                910,
                -0.0015590377151966095
            ],
            [
                920,
                -0.0015590377151966095
            ],
            [
                930,
                -0.005596616305410862
            ],
            [
                940,
                0.00032178402761928737
            ],
            [
                950,
                0.00032178402761928737
            ],
            [
                960,
                0.00032178402761928737
            ],
            [
                970,
                0.0005334511515684426
            ],
            [
                980,
                0.001138204475864768
            ],
            [
                990,
                0.0023657814599573612
            ]
        ],
        "crossover": "Uniform One Crossover",
        "crossover_rate": 0.800000011920929,
        "elapsed_time": 36.132145653,
        "evolution": [
            [
                0,
                -0.044456396251916885
            ],
            [
                10,
                -0.026143601164221764
            ],
            [
                20,
                -0.025044934824109077
            ],
            [
                30,
                -0.025044934824109077
            ],
            [
                40,
                -0.025044934824109077
            ],
            [
                50,
                -0.025044934824109077
            ],
            [
                60,
                -0.025044934824109077
            ],
            [
                70,
                -0.025044934824109077
            ],
            [
                80,
                -0.025044934824109077
            ],
            [
                90,
                -0.025044934824109077
            ],
            [
                100,
                -0.025044934824109077
            ],
            [
                110,
                -0.025044934824109077
            ],
            [
                120,
                -0.025044934824109077
            ],
            [
                130,
                -0.025044934824109077
            ],
            [
                140,
                -0.025044934824109077
            ],
            [
                150,
                -0.025044934824109077
            ],
            [
                160,
                -0.025044934824109077
            ],
            [
                170,
                -0.025044934824109077
            ],
            [
                180,
                -0.025044934824109077
            ],
            [
                190,
                -0.025044934824109077
            ],
            [
                200,
                -0.025044934824109077
            ],
            [
                210,
                -0.025044934824109077
            ],
            [
                220,
                -0.025044934824109077
            ],
            [
                230,
                -0.025044934824109077
            ],
            [
                240,
                -0.025044934824109077
            ],
            [
                250,
                -0.025044934824109077
            ],
            [
                260,
                -0.025044934824109077
            ],
            [
                270,
                -0.025044934824109077
            ],
            [
                280,
                -0.023482881486415863
            ],
            [
                290,
                -0.023482881486415863
            ],
            [
                300,
                -0.023482881486415863
            ],
            [
                310,
                -0.023482881486415863
            ],
            [
                320,
                -0.023482881486415863
            ],
            [
                330,
                -0.023482881486415863
            ],
            [
                340,
                -0.023482881486415863
            ],
            [
                350,
                -0.023482881486415863
            ],
            [
                360,
                -0.023482881486415863
            ],
            [
                370,
                -0.023482881486415863
            ],
            [
                380,
                -0.023482881486415863
            ],
            [
                390,
                -0.023482881486415863
            ],
            [
                400,
                -0.023482881486415863
            ],
            [
                410,
                -0.023482881486415863
            ],
            [
                420,
                -0.023482881486415863
            ],
            [
                430,
                -0.002487665507942438
            ],
            [
                440,
                -0.002487665507942438
            ],
            [
                450,
                -0.002487621270120144
            ],
            [
                460,
                -0.002487621270120144
            ],
            [
                470,
                -0.0024272233713418245
            ],
            [
                480,
                -0.0024272233713418245
            ],
            [
                490,
                -0.0024272233713418245
            ],
            [
                500,
                -0.0021706256084144115
            ],
            [
                510,
                -0.0021706256084144115
            ],
            [
                520,
                -0.0021706256084144115
            ],
            [
                530,
                -0.0021706256084144115
            ],
            [
                540,
                -0.0021706256084144115
            ],
            [
                550,
                -0.0021706256084144115
            ],
            [
                560,
                -0.0021706256084144115
            ],
            [
                570,
                -0.0021706256084144115
            ],
            [
                580,
                -0.0021706256084144115
            ],
            [
                590,
                -0.0021706256084144115
            ],
            [
                600,
                -0.0017514192732051015
            ],
            [
                610,
                -0.0017514192732051015
            ],
            [
                620,
                -0.0017514192732051015
            ],
            [
                630,
                -0.0017514192732051015
            ],
            [
                640,
                -0.0017514192732051015
            ],
            [
                650,
                -0.0016918955370783806
            ],
            [
                660,
                -0.001125854323618114
            ],
            [
                670,
                -0.001125854323618114
            ],
            [
                680,
                -0.001125854323618114
            ],
            [
                690,
                -0.001125854323618114
            ],
            [
                700,
                -0.001125854323618114
            ],
            [
                710,
                -0.001125854323618114
            ],
            [
                720,
                -0.001125854323618114
            ],
            [
                730,
                -0.0011204695329070091
            ],
            [
                740,
                -0.0011204695329070091
            ],
            [
                750,
                -0.0009827457834035158
            ],
            [
                760,
                -0.0009827457834035158
            ],
            [
                770,
                -0.0009827457834035158
            ],
            [
                780,
                -0.0009827457834035158
            ],
            [
                790,
                -0.0009827457834035158
            ],
            [
                800,
                -0.0009827457834035158
            ],
            [
                810,
                -0.0009827457834035158
            ],
            [
                820,
                -0.0009827457834035158
            ],
            [
                830,
                -0.0009827457834035158
            ],
            [
                840,
                -0.0009827457834035158
            ],
            [
                850,
                -0.0009827457834035158
            ],
            [
                860,
                -0.0009827457834035158
            ],
            [
                870,
                -0.0009827457834035158
            ],
            [
                880,
                -0.0009827457834035158
            ],
            [
                890,
                -0.0009827457834035158
            ],
            [
                900,
                -0.0009827457834035158
            ],
            [
                910,
                -0.0009827457834035158
            ],
            [
                920,
                -0.0009827457834035158
            ],
            [
                930,
                0.0004031029820907861
            ],
            [
                940,
                0.0004031029820907861
            ],
            [
                950,
                0.0004031029820907861
            ],
            [
                960,
                0.0004031029820907861
            ],
            [
                970,
                0.002429420594125986
            ],
            [
                980,
                0.002429420594125986
            ],
            [
                990,
                0.002429420594125986
            ]
        ],
        "max_generations": 1000,
        "mutation": "Uniform One Mutation",
        "mutation_rate": 0.008333333767950535,
        "name": "EIG",
        "novelty_search": {
            "k": 3,
            "name": "NSFeatures",
            "threshold": 1.0000000116860974e-07,
            "warm-up": false
        },
        "pop_size": 10,
        "portfolio": [
            {
                "isTarget": true,
                "name": "WorstFit"
            },
            {
                "isTarget": false,
                "name": "BestFit"
            },
            {
                "isTarget": false,
                "name": "NextFit"
            },
            {
                "isTarget": false,
                "name": "FirstFit"
            }
        ],
        "repetitions": 1,
        "replacement": "EGenerational",
        "weighted_function": {
            "fitness_ratio": 0.8500000238418579,
            "novelty_ratio": 0.15000000596046448
        }
    },
    "front": {
        "0": {
            "biasedFitness": 0.00036793947219848633,
            "capacity": 150,
            "conf_fitness": [
                [
                    0.8843936920166016
                ],
                [
                    0.8817307353019714
                ],
                [
                    0.6780990362167358
                ],
                [
                    0.8840257525444031
                ]
            ],
            "cons": [],
            "const_coeff": 0.0,
            "crow_distance": -1.0,
            "diversity": 0.0006023627938702703,
            "features": {
                "huge": 0.24166667461395264,
                "large": 0.7583333849906921,
                "max": 0.6666666865348816,
                "mean": 0.390500009059906,
                "median": 0.18333333730697632,
                "medium": 0.0,
                "min": 0.13333334028720856,
                "small": 0.21666668355464935,
                "std": 0.390500009059906,
                "tiny": 0.0
            },
            "fitness": 0.0004031029820907861,
            "items": [
                23,
                34,
                71,
                60,
                30,
                47,
                100,
                47,
                21,
                35,
                88,
                100,
                95,
                49,
                47,
                100,
                60,
                64,
                63,
                48,
                52,
                90,
                92,
                56,
                70,
                80,
                57,
                93,
                58,
                52,
                32,
                57,
                22,
                77,
                33,
                20,
                48,
                71,
                37,
                81,
                48,
                61,
                72,
                34,
                27,
                26,
                36,
                22,
                96,
                82,
                52,
                78,
                94,
                56,
                41,
                75,
                35,
                84,
                69,
                55,
                59,
                69,
                51,
                99,
                61,
                44,
                54,
                36,
                41,
                56,
                84,
                60,
                43,
                37,
                41,
                40,
                52,
                33,
                83,
                82,
                100,
                49,
                38,
                46,
                96,
                60,
                58,
                43,
                31,
                80,
                98,
                70,
                47,
                62,
                88,
                76,
                74,
                27,
                24,
                47,
                99,
                96,
                30,
                75,
                59,
                65,
                69,
                66,
                45,
                67,
                83,
                69,
                75,
                37,
                26,
                24,
                48,
                40,
                39,
                75
            ],
            "n_vars": 120,
            "num_cons": 0,
            "num_objs": 1,
            "num_vars": 120,
            "objs": [
                0
            ],
            "rank": -1,
            "vars": [
                23,
                34,
                71,
                60,
                30,
                47,
                100,
                47,
                21,
                35,
                88,
                100,
                95,
                49,
                47,
                100,
                60,
                64,
                63,
                48,
                52,
                90,
                92,
                56,
                70,
                80,
                57,
                93,
                58,
                52,
                32,
                57,
                22,
                77,
                33,
                20,
                48,
                71,
                37,
                81,
                48,
                61,
                72,
                34,
                27,
                26,
                36,
                22,
                96,
                82,
                52,
                78,
                94,
                56,
                41,
                75,
                35,
                84,
                69,
                55,
                59,
                69,
                51,
                99,
                61,
                44,
                54,
                36,
                41,
                56,
                84,
                60,
                43,
                37,
                41,
                40,
                52,
                33,
                83,
                82,
                100,
                49,
                38,
                46,
                96,
                60,
                58,
                43,
                31,
                80,
                98,
                70,
                47,
                62,
                88,
                76,
                74,
                27,
                24,
                47,
                99,
                96,
                30,
                75,
                59,
                65,
                69,
                66,
                45,
                67,
                83,
                69,
                75,
                37,
                26,
                24,
                48,
                40,
                39,
                75
            ]
        },
        "1": {
            "biasedFitness": 0.00036793947219848633,
            "capacity": 150,
            "conf_fitness": [
                [
                    0.8890043497085571
                ],
                [
                    0.8859023451805115
                ],
                [
                    0.6806760430335999
                ],
                [
                    0.8886364102363586
                ]
            ],
            "cons": [],
            "const_coeff": 0.0,
            "crow_distance": -1.0,
            "diversity": 0.0005499321268871427,
            "features": {
                "huge": 0.24166667461395264,
                "large": 0.7583333849906921,
                "max": 0.6666666865348816,
                "mean": 0.3915555477142334,
                "median": 0.18333333730697632,
                "medium": 0.0,
                "min": 0.13333334028720856,
                "small": 0.21666668355464935,
                "std": 0.3915555477142334,
                "tiny": 0.0
            },
            "fitness": 0.0003952383704017848,
            "items": [
                23,
                34,
                71,
                60,
                30,
                47,
                100,
                47,
                21,
                35,
                88,
                100,
                95,
                49,
                47,
                100,
                60,
                64,
                63,
                48,
                52,
                90,
                92,
                56,
                70,
                80,
                57,
                93,
                58,
                52,
                32,
                57,
                22,
                77,
                33,
                20,
                48,
                71,
                37,
                81,
                48,
                61,
                72,
                34,
                27,
                26,
                36,
                22,
                96,
                82,
                52,
                78,
                94,
                56,
                41,
                75,
                35,
                84,
                69,
                55,
                59,
                69,
                51,
                99,
                61,
                44,
                54,
                36,
                41,
                56,
                84,
                60,
                43,
                37,
                41,
                40,
                52,
                33,
                83,
                82,
                100,
                49,
                38,
                46,
                96,
                60,
                58,
                43,
                31,
                80,
                98,
                70,
                47,
                62,
                88,
                76,
                74,
                27,
                24,
                47,
                99,
                96,
                30,
                75,
                59,
                65,
                69,
                66,
                45,
                67,
                83,
                69,
                75,
                37,
                26,
                24,
                48,
                40,
                58,
                75
            ],
            "n_vars": 120,
            "num_cons": 0,
            "num_objs": 1,
            "num_vars": 120,
            "objs": [
                0
            ],
            "rank": -1,
            "vars": [
                23,
                34,
                71,
                60,
                30,
                47,
                100,
                47,
                21,
                35,
                88,
                100,
                95,
                49,
                47,
                100,
                60,
                64,
                63,
                48,
                52,
                90,
                92,
                56,
                70,
                80,
                57,
                93,
                58,
                52,
                32,
                57,
                22,
                77,
                33,
                20,
                48,
                71,
                37,
                81,
                48,
                61,
                72,
                34,
                27,
                26,
                36,
                22,
                96,
                82,
                52,
                78,
                94,
                56,
                41,
                75,
                35,
                84,
                69,
                55,
                59,
                69,
                51,
                99,
                61,
                44,
                54,
                36,
                41,
                56,
                84,
                60,
                43,
                37,
                41,
                40,
                52,
                33,
                83,
                82,
                100,
                49,
                38,
                46,
                96,
                60,
                58,
                43,
                31,
                80,
                98,
                70,
                47,
                62,
                88,
                76,
                74,
                27,
                24,
                47,
                99,
                96,
                30,
                75,
                59,
                65,
                69,
                66,
                45,
                67,
                83,
                69,
                75,
                37,
                26,
                24,
                48,
                40,
                58,
                75
            ]
        },
        "2": {
            "biasedFitness": 0.002774953842163086,
            "capacity": 150,
            "conf_fitness": [
                [
                    0.8862168192863464
                ],
                [
                    0.8834418654441833
                ],
                [
                    0.6793810129165649
                ],
                [
                    0.883128821849823
                ]
            ],
            "cons": [],
            "const_coeff": 0.0,
            "crow_distance": -1.0,
            "diversity": 0.0004713984380941838,
            "features": {
                "huge": 0.25,
                "large": 0.7500000596046448,
                "max": 0.6666666865348816,
                "mean": 0.39088889956474304,
                "median": 0.18333333730697632,
                "medium": 0.0,
                "min": 0.13333334028720856,
                "small": 0.21666668355464935,
                "std": 0.39088889956474304,
                "tiny": 0.0
            },
            "fitness": 0.002429420594125986,
            "items": [
                23,
                34,
                71,
                60,
                30,
                47,
                100,
                47,
                21,
                35,
                88,
                100,
                95,
                49,
                47,
                100,
                60,
                64,
                63,
                48,
                52,
                90,
                92,
                56,
                70,
                80,
                57,
                93,
                58,
                52,
                32,
                57,
                22,
                77,
                33,
                20,
                48,
                71,
                37,
                81,
                48,
                61,
                72,
                34,
                27,
                26,
                36,
                22,
                96,
                82,
                52,
                78,
                94,
                56,
                41,
                82,
                35,
                84,
                69,
                55,
                59,
                69,
                51,
                99,
                61,
                44,
                54,
                36,
                41,
                56,
                84,
                60,
                43,
                37,
                41,
                40,
                52,
                33,
                83,
                82,
                100,
                49,
                38,
                46,
                96,
                60,
                58,
                43,
                31,
                80,
                98,
                70,
                47,
                62,
                88,
                76,
                74,
                27,
                24,
                47,
                99,
                96,
                30,
                75,
                59,
                65,
                69,
                66,
                45,
                67,
                83,
                69,
                75,
                37,
                26,
                24,
                48,
                40,
                39,
                75
            ],
            "n_vars": 120,
            "num_cons": 0,
            "num_objs": 1,
            "num_vars": 120,
            "objs": [
                0
            ],
            "rank": -1,
            "vars": [
                23,
                34,
                71,
                60,
                30,
                47,
                100,
                47,
                21,
                35,
                88,
                100,
                95,
                49,
                47,
                100,
                60,
                64,
                63,
                48,
                52,
                90,
                92,
                56,
                70,
                80,
                57,
                93,
                58,
                52,
                32,
                57,
                22,
                77,
                33,
                20,
                48,
                71,
                37,
                81,
                48,
                61,
                72,
                34,
                27,
                26,
                36,
                22,
                96,
                82,
                52,
                78,
                94,
                56,
                41,
                82,
                35,
                84,
                69,
                55,
                59,
                69,
                51,
                99,
                61,
                44,
                54,
                36,
                41,
                56,
                84,
                60,
                43,
                37,
                41,
                40,
                52,
                33,
                83,
                82,
                100,
                49,
                38,
                46,
                96,
                60,
                58,
                43,
                31,
                80,
                98,
                70,
                47,
                62,
                88,
                76,
                74,
                27,
                24,
                47,
                99,
                96,
                30,
                75,
                59,
                65,
                69,
                66,
                45,
                67,
                83,
                69,
                75,
                37,
                26,
                24,
                48,
                40,
                39,
                75
            ]
        },
        "3": {
            "biasedFitness": 0.00037682056427001953,
            "capacity": 150,
            "conf_fitness": [
                [
                    0.8841421604156494
                ],
                [
                    0.881470263004303
                ],
                [
                    0.6778820753097534
                ],
                [
                    0.8837653398513794
                ]
            ],
            "cons": [],
            "const_coeff": 0.0,
            "crow_distance": -1.0,
            "diversity": 0.0,
            "features": {
                "huge": 0.24166667461395264,
                "large": 0.7583333849906921,
                "max": 0.6666666865348816,
                "mean": 0.39044445753097534,
                "median": 0.18333333730697632,
                "medium": 0.0,
                "min": 0.13333334028720856,
                "small": 0.21666668355464935,
                "std": 0.39044445753097534,
                "tiny": 0.0
            },
            "fitness": 0.0003202974912710488,
            "items": [
                23,
                34,
                71,
                60,
                30,
                47,
                100,
                47,
                21,
                35,
                88,
                100,
                95,
                49,
                47,
                100,
                60,
                64,
                63,
                48,
                51,
                90,
                92,
                56,
                70,
                80,
                57,
                93,
                58,
                52,
                32,
                57,
                22,
                77,
                33,
                20,
                48,
                71,
                37,
                81,
                48,
                61,
                72,
                34,
                27,
                26,
                36,
                22,
                96,
                82,
                52,
                78,
                94,
                56,
                41,
                75,
                35,
                84,
                69,
                55,
                59,
                69,
                51,
                99,
                61,
                44,
                54,
                36,
                41,
                56,
                84,
                60,
                43,
                37,
                41,
                40,
                52,
                33,
                83,
                82,
                100,
                49,
                38,
                46,
                96,
                60,
                58,
                43,
                31,
                80,
                98,
                70,
                47,
                62,
                88,
                76,
                74,
                27,
                24,
                47,
                99,
                96,
                30,
                75,
                59,
                65,
                69,
                66,
                45,
                67,
                83,
                69,
                75,
                37,
                26,
                24,
                48,
                40,
                39,
                75
            ],
            "n_vars": 120,
            "num_cons": 0,
            "num_objs": 1,
            "num_vars": 120,
            "objs": [
                0
            ],
            "rank": -1,
            "vars": [
                23,
                34,
                71,
                60,
                30,
                47,
                100,
                47,
                21,
                35,
                88,
                100,
                95,
                49,
                47,
                100,
                60,
                64,
                63,
                48,
                51,
                90,
                92,
                56,
                70,
                80,
                57,
                93,
                58,
                52,
                32,
                57,
                22,
                77,
                33,
                20,
                48,
                71,
                37,
                81,
                48,
                61,
                72,
                34,
                27,
                26,
                36,
                22,
                96,
                82,
                52,
                78,
                94,
                56,
                41,
                75,
                35,
                84,
                69,
                55,
                59,
                69,
                51,
                99,
                61,
                44,
                54,
                36,
                41,
                56,
                84,
                60,
                43,
                37,
                41,
                40,
                52,
                33,
                83,
                82,
                100,
                49,
                38,
                46,
                96,
                60,
                58,
                43,
                31,
                80,
                98,
                70,
                47,
                62,
                88,
                76,
                74,
                27,
                24,
                47,
                99,
                96,
                30,
                75,
                59,
                65,
                69,
                66,
                45,
                67,
                83,
                69,
                75,
                37,
                26,
                24,
                48,
                40,
                39,
                75
            ]
        },
        "4": {
            "biasedFitness": 4.2498111724853516e-05,
            "capacity": 150,
            "conf_fitness": [
                [
                    0.8810088634490967
                ],
                [
                    0.8809663653373718
                ],
                [
                    0.6748913526535034
                ],
                [
                    0.8779155015945435
                ]
            ],
            "cons": [],
            "const_coeff": 0.0,
            "crow_distance": -1.0,
            "diversity": 7.856173033360392e-05,
            "features": {
                "huge": 0.24166667461395264,
                "large": 0.7583333849906921,
                "max": 0.6666666865348816,
                "mean": 0.38972222805023193,
                "median": 0.18333333730697632,
                "medium": 0.0,
                "min": 0.13333334028720856,
                "small": 0.21666668355464935,
                "std": 0.38972222805023193,
                "tiny": 0.0
            },
            "fitness": 4.790765524376184e-05,
            "items": [
                23,
                34,
                71,
                60,
                30,
                47,
                100,
                47,
                21,
                35,
                88,
                100,
                95,
                49,
                47,
                100,
                60,
                64,
                63,
                48,
                52,
                90,
                92,
                56,
                70,
                80,
                57,
                72,
                58,
                52,
                32,
                57,
                22,
                77,
                33,
                20,
                48,
                71,
                37,
                81,
                48,
                61,
                72,
                34,
                27,
                26,
                36,
                22,
                96,
                82,
                52,
                78,
                94,
                56,
                41,
                82,
                35,
                84,
                69,
                55,
                59,
                69,
                51,
                99,
                61,
                44,
                54,
                36,
                41,
                56,
                84,
                60,
                43,
                37,
                41,
                40,
                52,
                33,
                83,
                82,
                100,
                49,
                38,
                46,
                96,
                60,
                58,
                43,
                31,
                80,
                98,
                70,
                47,
                62,
                88,
                76,
                74,
                27,
                24,
                47,
                99,
                96,
                30,
                75,
                59,
                65,
                69,
                66,
                45,
                67,
                83,
                69,
                75,
                37,
                26,
                24,
                48,
                40,
                39,
                75
            ],
            "n_vars": 120,
            "num_cons": 0,
            "num_objs": 1,
            "num_vars": 120,
            "objs": [
                0
            ],
            "rank": -1,
            "vars": [
                23,
                34,
                71,
                60,
                30,
                47,
                100,
                47,
                21,
                35,
                88,
                100,
                95,
                49,
                47,
                100,
                60,
                64,
                63,
                48,
                52,
                90,
                92,
                56,
                70,
                80,
                57,
                72,
                58,
                52,
                32,
                57,
                22,
                77,
                33,
                20,
                48,
                71,
                37,
                81,
                48,
                61,
                72,
                34,
                27,
                26,
                36,
                22,
                96,
                82,
                52,
                78,
                94,
                56,
                41,
                82,
                35,
                84,
                69,
                55,
                59,
                69,
                51,
                99,
                61,
                44,
                54,
                36,
                41,
                56,
                84,
                60,
                43,
                37,
                41,
                40,
                52,
                33,
                83,
                82,
                100,
                49,
                38,
                46,
                96,
                60,
                58,
                43,
                31,
                80,
                98,
                70,
                47,
                62,
                88,
                76,
                74,
                27,
                24,
                47,
                99,
                96,
                30,
                75,
                59,
                65,
                69,
                66,
                45,
                67,
                83,
                69,
                75,
                37,
                26,
                24,
                48,
                40,
                39,
                75
            ]
        },
        "n_solutions": 5
    },
    "problem": {
        "defaultCapacity": 150,
        "low_limit": 20.0,
        "maxWeight": 100,
        "minWeight": 20,
        "name": "BPPDomain",
        "num_cons": 0,
        "num_objs": 1,
        "num_vars": 120,
        "up_limit": 100.0
    }
}